20 128
10 -0.08687822 -0.17459358 0.076456465 0.059669618 0.0050491835 0.11566887 -0.021321155 -0.118078366 -0.03140056 -0.032686424 0.0032523263 0.04244675 0.08042781 0.18869796 -0.11353355 0.053620186 -0.077446505 -0.08654319 -0.05776246 -0.10973395 0.1501541 -0.11055573 -0.051075615 0.04375593 -0.010641293 0.030966522 0.0026845208 0.17303218 -0.17965943 -0.04520889 -0.040967282 -0.027926607 -0.031655334 0.16471697 -0.031083552 -0.077384956 -0.043757662 0.057154357 0.09630619 -0.061888047 0.047872543 0.1433201 -0.108129665 -0.014083913 -0.05461727 0.053452097 0.05015634 -0.008530483 0.13179958 0.1195766 0.070699096 0.042544268 0.018198222 -0.10014846 -0.033805184 -0.0672835 0.040251475 0.19727908 -0.045646902 0.09027235 -0.018228807 -0.08350453 -0.14084505 0.077422105 -0.085314974 0.031862732 -0.02203672 -0.07229537 -0.23335627 -0.031009724 0.10646992 0.12508914 0.026635164 0.12907784 0.050028805 0.18122791 0.022759024 -0.07508479 0.039777625 0.066090226 0.005171755 -0.020028384 -0.05794028 -0.03909702 0.14898819 0.018711608 0.15141751 -0.036006246 0.10351162 0.14889756 -0.14660794 -0.04236639 -0.036605064 0.023345944 -0.0024571044 -0.039705634 -0.17171988 0.109008245 -0.023822546 0.14764209 -0.0983969 -0.0011181947 0.017206954 0.008005864 -0.035238028 -0.10015959 -0.03847519 0.074455656 -0.1236811 -0.15696129 -0.13154903 0.10766614 0.02418842 -0.0031450335 0.17671256 0.04657742 -0.1127726 -0.07706651 0.086332105 -0.16443579 0.016730417 -0.04810075 -0.05806699 0.092391655 -0.051530473 -0.05361582 -0.14750227 0.038186777
0 -0.08366727 -0.16478844 0.08048708 0.052802827 -0.0015822124 0.10792372 -0.016509077 -0.11749974 -0.028163353 -0.025192376 0.0037087249 0.029506363 0.07337549 0.172079 -0.10648211 0.05893954 -0.075933725 -0.07815566 -0.06525969 -0.09502275 0.1391859 -0.110570766 -0.05115688 0.05288393 -0.01327283 0.026726816 -0.0011871224 0.16699864 -0.1730497 -0.03430018 -0.042055655 -0.021628074 -0.028389614 0.14914808 -0.029633524 -0.08591323 -0.032886006 0.05159329 0.081022725 -0.0641556 0.044545636 0.13966796 -0.11250606 -0.017446382 -0.059215344 0.05288626 0.040957157 -0.0066907303 0.12228788 0.13336673 0.06689845 0.049438644 0.016221128 -0.10029793 -0.03219253 -0.061622493 0.031058947 0.19704428 -0.02801637 0.07693947 -0.0028738228 -0.08762458 -0.13307881 0.07189072 -0.093826376 0.030493652 -0.033178203 -0.09087048 -0.25908577 -0.02373715 0.11020566 0.13579324 0.01683838 0.14194594 0.054322876 0.18286002 0.020711243 -0.07455791 0.049977627 0.06807187 -0.005526738 -0.01199669 -0.053014707 -0.038295746 0.1490177 0.0140204495 0.15447792 -0.037348527 0.10064733 0.15317465 -0.14195912 -0.04123219 -0.029567765 0.022670621 0.005103909 -0.0339247 -0.17932767 0.11199635 -0.027435625 0.14817765 -0.10728894 -0.011067133 0.01376261 0.01727437 -0.022790866 -0.101281844 -0.02528408 0.084163845 -0.13649884 -0.1546458 -0.13035794 0.11917999 0.029448159 0.010623952 0.18299331 0.05173227 -0.115198545 -0.0818419 0.10090493 -0.17039576 0.02183351 -0.041219138 -0.062381666 0.09652724 -0.046715874 -0.05279801 -0.1404721 0.037034135
1 -0.07495629 -0.16904594 0.082518086 0.05581799 0.0041146725 0.1120641 -0.026458679 -0.11375128 -0.027688354 -0.036585473 0.0067958953 0.036343154 0.06951707 0.1782012 -0.10529979 0.056373544 -0.08535543 -0.086210735 -0.06580997 -0.10687243 0.13835289 -0.11462868 -0.049683247 0.050213944 -0.018147776 0.03309724 -0.0023022648 0.16593596 -0.17131999 -0.0439189 -0.046050053 -0.025353119 -0.030005796 0.16962282 -0.038239613 -0.08688436 -0.05274489 0.06105664 0.09712885 -0.06870082 0.044224657 0.14829096 -0.117350906 -0.020915136 -0.06769751 0.060119458 0.047176093 -0.007848269 0.13951014 0.13848296 0.06682168 0.045609657 0.021557147 -0.10671337 -0.031172255 -0.075316906 0.039267093 0.19316578 -0.04170229 0.08664827 -0.00464645 -0.0912697 -0.13478512 0.07664644 -0.087283574 0.04550625 -0.027901042 -0.08533293 -0.26207623 -0.023911031 0.11814201 0.12423609 0.02601147 0.124944784 0.046642985 0.18343677 0.02789661 -0.07126727 0.04257807 0.077263154 -0.011361699 -0.017050529 -0.051645853 -0.039680652 0.15344314 0.0115504125 0.15557608 -0.029117994 0.10576706 0.14199814 -0.14573824 -0.041659445 -0.034778688 0.029191919 0.0045842845 -0.027396679 -0.18016924 0.110483006 -0.02063741 0.14994915 -0.113939844 -0.0132550495 0.013347692 0.012596149 -0.024209695 -0.10543714 -0.026509212 0.078879364 -0.13626489 -0.1612868 -0.12882064 0.12013196 0.03768502 0.004161671 0.18371016 0.0470627 -0.11504395 -0.081341945 0.09901237 -0.17029345 0.025810145 -0.040828917 -0.06060258 0.09097117 -0.060341258 -0.058360856 -0.14117111 0.034641214
2 -0.08403709 -0.1723397 0.077635586 0.057285417 0.0023309272 0.10952399 -0.016236851 -0.11322992 -0.02633862 -0.034917537 0.0070160995 0.028431041 0.06974218 0.18061092 -0.10578743 0.056133144 -0.07986975 -0.0816989 -0.058888588 -0.10579658 0.14859924 -0.11440051 -0.05439619 0.050059617 -0.015539122 0.032197926 0.0018820817 0.17155005 -0.17810778 -0.042568736 -0.04445506 -0.02741932 -0.033386424 0.1635997 -0.03362809 -0.08099144 -0.037238393 0.056020796 0.0908716 -0.065380506 0.043882567 0.14908622 -0.113364294 -0.017916776 -0.06648956 0.06257042 0.043324023 -0.01199031 0.13310643 0.14166524 0.06343684 0.047834866 0.01901232 -0.10393021 -0.030199228 -0.07284224 0.03440238 0.19752876 -0.034688186 0.08275711 -0.0006699859 -0.088321365 -0.13564868 0.07909422 -0.08481575 0.03624508 -0.02885448 -0.08669956 -0.25383 -0.023148619 0.110217914 0.12670714 0.021395428 0.13297759 0.053215675 0.18209536 0.02539081 -0.07017803 0.047026064 0.06769579 -0.0030150067 -0.016580883 -0.057687327 -0.037143517 0.14781901 0.014928275 0.15012456 -0.035009388 0.096995674 0.15207285 -0.14069867 -0.037747927 -0.034423992 0.021815112 -0.0015095414 -0.03354689 -0.1751324 0.11195472 -0.030770566 0.14278457 -0.10733375 -0.014244636 0.01959402 0.013848747 -0.025675038 -0.10387668 -0.02840813 0.08526353 -0.13585758 -0.15855242 -0.12833962 0.11706287 0.033151425 0.003866982 0.18124475 0.054494455 -0.11288242 -0.07643427 0.099850416 -0.1668633 0.020318663 -0.044942714 -0.06267068 0.090922244 -0.055190213 -0.061261702 -0.14064604 0.036296453
3 -0.08343886 -0.17850563 0.07758457 0.05386604 0.0006046078 0.11611537 -0.024609676 -0.11874725 -0.02469929 -0.032556035 0.0086347535 0.033181377 0.07202759 0.18251769 -0.10924652 0.05651011 -0.09126252 -0.087414354 -0.06491988 -0.10344458 0.14642698 -0.12206478 -0.054577786 0.061263748 -0.010637238 0.026149198 0.0004711757 0.17058326 -0.18160726 -0.035919126 -0.051879793 -0.0260845 -0.031530958 0.1681147 -0.032785866 -0.08726001 -0.04463063 0.058878917 0.08793028 -0.076128215 0.03388492 0.14023876 -0.11590147 -0.01736226 -0.058453474 0.064045854 0.038460497 -0.0078843525 0.12872933 0.14544497 0.06258876 0.052466277 0.024473285 -0.10447415 -0.029348403 -0.07038148 0.03608778 0.19152996 -0.028168384 0.08036922 0.0023795415 -0.08650372 -0.13150266 0.0734044 -0.08326137 0.033771 -0.032213107 -0.08662311 -0.25118753 -0.021517357 0.10983608 0.12827626 0.023240233 0.13202754 0.04739597 0.17583336 0.025454035 -0.06693118 0.047899 0.0691946 -0.0027227562 -0.0070904796 -0.046709545 -0.044953402 0.15498517 0.011252931 0.15560575 -0.032848753 0.10000642 0.15035027 -0.14572239 -0.04093772 -0.028025648 0.031209927 0.0016312131 -0.034178413 -0.1800336 0.108003736 -0.023930231 0.14298257 -0.11073154 -0.009959048 0.016641935 0.0108979475 -0.023819238 -0.09846988 -0.020262916 0.07833694 -0.1381153 -0.15199554 -0.1193154 0.12084349 0.039098788 0.0062063606 0.18799992 0.055410765 -0.111882046 -0.08167355 0.099677965 -0.17676112 0.015808864 -0.039826237 -0.06377313 0.09472353 -0.048568748 -0.05040608 -0.14294213 0.035327014
4 -0.08429569 -0.17328814 0.079861075 0.05261725 0.008174652 0.11905212 -0.026100088 -0.12143113 -0.029439092 -0.03395026 0.0064247358 0.043322857 0.0705002 0.18457113 -0.10573802 0.056159697 -0.09352702 -0.09254334 -0.06395363 -0.11268514 0.15309696 -0.11842034 -0.049225803 0.05395201 -0.012614783 0.026768757 -0.0022845732 0.17000431 -0.18093915 -0.04435993 -0.04546503 -0.03240044 -0.033927243 0.16967027 -0.038390834 -0.08661064 -0.044739183 0.06673472 0.09315109 -0.071591385 0.035365056 0.14162193 -0.114131324 -0.017235614 -0.056444492 0.05806541 0.038169023 -0.0091439085 0.13214535 0.13534817 0.06389085 0.05425925 0.017228978 -0.1044292 -0.0330379 -0.07229271 0.039175015 0.19127901 -0.043664794 0.087201044 -0.0075478107 -0.08969451 -0.13711463 0.076502465 -0.08289006 0.03846312 -0.027761908 -0.07442657 -0.24478768 -0.021164453 0.116217695 0.1311514 0.025052408 0.12841216 0.040069662 0.17501816 0.02568218 -0.07378264 0.040120844 0.070310496 -0.0013694147 -0.012557413 -0.051423047 -0.037759285 0.14932995 0.016819779 0.15221679 -0.028639622 0.10246625 0.14440951 -0.15055953 -0.049531728 -0.03176792 0.031742677 0.00087348337 -0.035199586 -0.17738892 0.10522933 -0.02492858 0.14459877 -0.10365384 -0.0045792838 0.013553319 0.010007646 -0.029398208 -0.10218674 -0.030087475 0.077403866 -0.1291361 -0.15962498 -0.12679632 0.11510693 0.0360003 0.0029158976 0.18172283 0.05649288 -0.11200231 -0.07157015 0.0999825 -0.16896653 0.020052215 -0.044664428 -0.062605016 0.08726118 -0.05590685 -0.05252587 -0.14577827 0.035412684
5 -0.08813313 -0.19044788 0.08420064 0.061966475 0.00053716276 0.11633205 -0.021345396 -0.121298626 -0.02980911 -0.027089924 0.014196609 0.03469462 0.0733322 0.19028115 -0.10874109 0.062314 -0.08688253 -0.07877139 -0.06504739 -0.10270209 0.14880739 -0.11649679 -0.060298216 0.06578633 -0.0071870615 0.03489546 -0.003985124 0.16989844 -0.18739046 -0.030409439 -0.046705037 -0.02548252 -0.031858873 0.16336976 -0.030589469 -0.08885978 -0.042262428 0.05993461 0.092592694 -0.07254456 0.039468832 0.13952619 -0.1124722 -0.020439034 -0.058976438 0.057067536 0.041289415 -0.0126472665 0.12450737 0.14021671 0.06365007 0.04911546 0.022527697 -0.10236179 -0.03078611 -0.06485174 0.031323783 0.1979487 -0.028687043 0.07878007 -7.4079115e-05 -0.088012576 -0.1382231 0.075408995 -0.08236581 0.03343693 -0.035529062 -0.08478941 -0.2532118 -0.02955173 0.10765394 0.12603898 0.018658677 0.12832063 0.047648124 0.17544402 0.022616528 -0.068975255 0.04555422 0.06337994 -0.0020439296 -0.012737305 -0.048571195 -0.044611912 0.14693092 0.021064276 0.15917547 -0.031551417 0.0972106 0.15158477 -0.13956565 -0.0503703 -0.029690502 0.024873052 -0.0015555358 -0.039951883 -0.17653355 0.10933959 -0.029564468 0.14870276 -0.10575273 -0.011203377 0.014210859 0.013858524 -0.018246595 -0.09415558 -0.022187548 0.087103866 -0.13292834 -0.15091631 -0.12492657 0.116733626 0.03698291 0.0074737417 0.18159212 0.044795744 -0.11248287 -0.08191168 0.09607588 -0.17483565 0.01480077 -0.041160066 -0.063070126 0.09699755 -0.042414878 -0.045352418 -0.1442042 0.032186784
6 -0.08600669 -0.17704505 0.07297021 0.06071904 0.0044920766 0.119182035 -0.018632898 -0.11185389 -0.034988996 -0.0404028 0.011704521 0.030104436 0.07933138 0.19292104 -0.10713786 0.05489164 -0.07667191 -0.08390725 -0.0538585 -0.11765784 0.15599431 -0.103669375 -0.051229242 0.04338875 -0.0069975797 0.02878609 0.010022437 0.1725411 -0.18513745 -0.054652452 -0.032038633 -0.037959896 -0.038818926 0.16120224 -0.03344344 -0.07865615 -0.04420676 0.05574925 0.088574626 -0.0642435 0.05197905 0.16008432 -0.11393245 -0.016173182 -0.062301897 0.05348384 0.056145422 -0.010656888 0.13215154 0.1229728 0.07612313 0.051334683 0.01738411 -0.09996538 -0.03725256 -0.076331146 0.041305166 0.19965641 -0.048112426 0.08716501 -0.020380309 -0.0838365 -0.1377914 0.08201486 -0.087664634 0.035363823 -0.020934002 -0.073521465 -0.23141253 -0.025543422 0.10829159 0.13338213 0.021647658 0.12708823 0.046457972 0.18895453 0.023964958 -0.07846886 0.04181237 0.06463421 0.010282169 -0.02599253 -0.069723226 -0.028483896 0.14162275 0.0159758 0.14973944 -0.02430887 0.09953385 0.15150432 -0.14305404 -0.04216804 -0.042876285 0.020898214 -0.0017614155 -0.040029787 -0.17229863 0.11379197 -0.022905363 0.1489002 -0.09932947 -0.0039925002 0.025701227 0.008276569 -0.031250328 -0.0979328 -0.042844653 0.07439036 -0.12558979 -0.16157785 -0.14033641 0.111052506 0.020498276 -0.003630228 0.17494719 0.052686825 -0.10750023 -0.07471601 0.080212995 -0.16270204 0.028265873 -0.0514208 -0.052933484 0.092514634 -0.055381447 -0.06820007 -0.14487213 0.04290152
7 -0.07791319 -0.17139061 0.07580851 0.056858927 0.0032241654 0.11073908 -0.021830732 -0.11419192 -0.029325373 -0.02959458 0.0073459856 0.036444128 0.07398789 0.17660502 -0.106651306 0.05236405 -0.08578942 -0.08265162 -0.059242256 -0.10512011 0.14613229 -0.11262271 -0.054371815 0.054493517 -0.015155433 0.03479104 -0.0052848887 0.1653978 -0.18169859 -0.04052174 -0.0442202 -0.024371698 -0.03114846 0.16459915 -0.03566516 -0.08331748 -0.04441735 0.0589027 0.091666915 -0.069968805 0.04192967 0.14270762 -0.11173646 -0.018486062 -0.06273334 0.058799386 0.042642552 -0.007536613 0.12748472 0.13617636 0.06118252 0.04489185 0.020527422 -0.10062751 -0.032056216 -0.06732265 0.030928591 0.20124915 -0.033077568 0.087727904 -0.00053972955 -0.08783128 -0.14104337 0.079160765 -0.08769895 0.041530967 -0.025962623 -0.08585084 -0.25518376 -0.027881825 0.11364219 0.12539499 0.025705703 0.13378847 0.05439839 0.18629844 0.027136637 -0.06989405 0.04811452 0.073257074 -0.006828967 -0.01381097 -0.05541186 -0.037340377 0.15213288 0.013111586 0.15488705 -0.031854965 0.101305805 0.14853941 -0.14426425 -0.042022564 -0.033360053 0.029107526 0.0035935552 -0.034597743 -0.18134983 0.1097912 -0.030065948 0.14926311 -0.106110945 -0.012340149 0.01618272 0.01609897 -0.023604322 -0.10106166 -0.026512554 0.08316863 -0.13742882 -0.15937336 -0.1316144 0.11593281 0.034951754 0.003450526 0.1881295 0.051100235 -0.112012535 -0.08326361 0.10188726 -0.17045948 0.020989226 -0.046319123 -0.061431214 0.088914365 -0.05592372 -0.058261573 -0.14749031 0.0333467
8 -0.07687539 -0.17456897 0.08087913 0.05388904 0.0011540388 0.11476279 -0.02500545 -0.118685685 -0.024394002 -0.0321128 0.008457029 0.034771103 0.06872129 0.1797281 -0.1070039 0.057194892 -0.0873763 -0.08594051 -0.06852706 -0.10953545 0.14737079 -0.11619919 -0.055048928 0.059965577 -0.01851839 0.031198746 -0.0020856487 0.17394876 -0.17993668 -0.03794154 -0.050565433 -0.025581481 -0.03010087 0.16158003 -0.036179088 -0.08646375 -0.04588153 0.06297555 0.09641663 -0.06951938 0.04823582 0.14451942 -0.116212584 -0.016042478 -0.060484167 0.058232147 0.03874061 -0.00974942 0.12785073 0.13875219 0.06606866 0.051202778 0.022834636 -0.10702462 -0.029998852 -0.06954032 0.03382378 0.19774175 -0.03738737 0.08426242 -0.0017710956 -0.08583498 -0.13605613 0.07894351 -0.08724505 0.035601202 -0.031121183 -0.085910216 -0.25688243 -0.029697597 0.115634784 0.12923248 0.023998767 0.1315666 0.045473825 0.17822964 0.021552283 -0.07091708 0.04456988 0.06920143 -0.001679785 -0.01298126 -0.04449362 -0.036994018 0.14943472 0.020347139 0.15728411 -0.027787939 0.09914754 0.14295425 -0.14483821 -0.048360053 -0.026925078 0.029817984 0.0032645802 -0.03638098 -0.17571884 0.112051696 -0.017456597 0.14747499 -0.10605028 -0.010060642 0.010304208 0.010908274 -0.021467557 -0.10071779 -0.02445303 0.08208936 -0.13256106 -0.15892777 -0.1316686 0.12102517 0.037402153 0.0045919353 0.17598036 0.050051056 -0.11259983 -0.077925146 0.101870194 -0.17480855 0.022856891 -0.041238837 -0.057327364 0.0933552 -0.051784374 -0.048505325 -0.13973102 0.034040365
9 -0.09055839 -0.18439457 0.0851616 0.0572231 -0.00079876254 0.123207435 -0.022354906 -0.12469779 -0.025700727 -0.029173939 0.010720705 0.0355989 0.06782663 0.18035659 -0.10626367 0.060695745 -0.09065291 -0.08569913 -0.067625605 -0.1061236 0.15311779 -0.12269797 -0.05606858 0.063846156 -0.013824427 0.022916615 0.0018841312 0.16895337 -0.17911826 -0.033311747 -0.05071313 -0.027338827 -0.029042406 0.16128653 -0.032542307 -0.09457933 -0.03682024 0.062405832 0.08896477 -0.06953754 0.03446763 0.13930161 -0.11221559 -0.014272643 -0.05483456 0.06282772 0.03959875 -0.011554597 0.13133721 0.14896797 0.064439155 0.05921767 0.021488693 -0.107855044 -0.030237544 -0.07193704 0.03633916 0.18722694 -0.030945916 0.07765555 0.0036593806 -0.086590916 -0.12527145 0.071533754 -0.084399074 0.0308285 -0.029135507 -0.08525678 -0.2504451 -0.020227566 0.112918586 0.13370201 0.019123087 0.13328989 0.04702857 0.16681372 0.026892671 -0.06709494 0.046068665 0.065396056 -0.0005897827 -0.008778656 -0.048242077 -0.042094104 0.14796674 0.015709426 0.15580599 -0.032730818 0.0954275 0.14776663 -0.14067903 -0.041842215 -0.02326272 0.025065547 0.0035472221 -0.031343624 -0.17418075 0.11185027 -0.027956737 0.13998398 -0.10467848 -0.009981422 0.017928872 0.012242189 -0.020223757 -0.09546528 -0.019492142 0.081931256 -0.13267444 -0.14527577 -0.116772965 0.11828434 0.038049404 0.008368267 0.18187802 0.057093 -0.11265148 -0.076557264 0.1016361 -0.17758514 0.016569503 -0.042056978 -0.063117646 0.09081817 -0.047419783 -0.048484668 -0.1376474 0.036396075
11 -0.08284371 -0.17141116 0.08186828 0.05203025 -4.8684677e-05 0.11297486 -0.02036159 -0.111566804 -0.029883657 -0.0322114 0.012739993 0.031125793 0.07239975 0.17945 -0.10607889 0.056446742 -0.08587687 -0.08168473 -0.057666767 -0.1080332 0.14842547 -0.1096445 -0.053187776 0.05570005 -0.011536546 0.031399723 -0.00038141842 0.16548291 -0.17993484 -0.038765486 -0.046716955 -0.025318865 -0.031762894 0.16257589 -0.03490071 -0.08368651 -0.040673435 0.056220498 0.09255934 -0.06987456 0.039712958 0.14425011 -0.1115176 -0.01776785 -0.061068114 0.061594166 0.0428156 -0.013689904 0.12962213 0.14190578 0.06375437 0.052461028 0.022025311 -0.104481824 -0.03296354 -0.06912427 0.03898301 0.19343996 -0.03731261 0.08196844 -0.002110434 -0.09042393 -0.13782954 0.07761197 -0.08342043 0.0338817 -0.029197339 -0.08091026 -0.25143424 -0.0276088 0.11339144 0.124786854 0.020384504 0.12850809 0.049591143 0.1788917 0.02556959 -0.0720741 0.047624778 0.07275018 0.0006965897 -0.0123148495 -0.05301014 -0.037640736 0.14824048 0.01591938 0.15280075 -0.03267437 0.100656606 0.15094326 -0.14367367 -0.044382963 -0.03196558 0.023523336 -0.0035777008 -0.033027425 -0.17253949 0.11016485 -0.028070515 0.14256072 -0.10461319 -0.009716177 0.019483138 0.0138858305 -0.022389539 -0.09989894 -0.025569987 0.0815807 -0.13660648 -0.15859348 -0.12769994 0.11785418 0.036834355 0.0046040895 0.17634128 0.05226594 -0.10925166 -0.076260604 0.09845149 -0.16957529 0.019270044 -0.045107402 -0.06225181 0.091979936 -0.04942563 -0.05397248 -0.14558168 0.03741828
12 -0.07929013 -0.1771137 0.08099143 0.05781131 0.009959107 0.1210975 -0.017749004 -0.114986755 -0.03477688 -0.042410057 0.014617051 0.040445793 0.08016076 0.18807459 -0.108892396 0.0515852 -0.081034884 -0.08805554 -0.059232738 -0.11408027 0.14908125 -0.110796854 -0.053026885 0.052336156 -0.008215762 0.03253208 0.0004436828 0.17004065 -0.18056922 -0.046331335 -0.04017549 -0.037826296 -0.03484874 0.1648344 -0.03599491 -0.081194974 -0.04996552 0.06390262 0.09082377 -0.06634336 0.045882467 0.14804696 -0.111376144 -0.012437213 -0.053348474 0.053639006 0.045360666 -0.009453793 0.1262404 0.12342245 0.071126886 0.050701763 0.014636714 -0.10141707 -0.038738012 -0.07179672 0.03933956 0.19199577 -0.045878574 0.08803014 -0.015549763 -0.078006625 -0.13398463 0.07850853 -0.08599718 0.03830281 -0.018484503 -0.078571305 -0.23928285 -0.026935507 0.11411844 0.13141653 0.021813309 0.12099543 0.040750295 0.18624192 0.023835907 -0.07388039 0.04197454 0.07051957 0.006964914 -0.018142467 -0.056256138 -0.029790655 0.14937922 0.019073913 0.15205283 -0.02325597 0.09553853 0.142625 -0.14031671 -0.044618785 -0.032048848 0.026831059 -0.004531193 -0.034918655 -0.17356141 0.11304279 -0.02077238 0.15021095 -0.09396926 -0.0012213935 0.022491433 0.0083934385 -0.030550396 -0.10007392 -0.037525848 0.07224523 -0.12374617 -0.15165283 -0.13522609 0.112206325 0.026779626 -0.0020573782 0.1770247 0.05330968 -0.11043298 -0.070159696 0.08704079 -0.16845149 0.027223967 -0.04766986 -0.0554174 0.0889289 -0.05752249 -0.05723184 -0.14567836 0.03495159
13 -0.079136476 -0.16969615 0.07793782 0.05448438 0.005571414 0.108795576 -0.016437754 -0.11502062 -0.030163407 -0.03662777 0.013593734 0.03240425 0.074268274 0.17764288 -0.10820596 0.050336946 -0.08505717 -0.083414644 -0.059872758 -0.0998553 0.14436582 -0.11317014 -0.053715657 0.059745777 -0.006613049 0.035325512 0.004110409 0.16009998 -0.17843196 -0.03943158 -0.041348707 -0.02557729 -0.026706329 0.16034769 -0.032677215 -0.08711773 -0.04596616 0.05442129 0.08525381 -0.06884672 0.03878725 0.14612262 -0.11624969 -0.018393483 -0.06349931 0.056545805 0.04161015 -0.012039334 0.12597707 0.1424146 0.06419681 0.051132977 0.018895382 -0.102972284 -0.037204936 -0.07400585 0.030246247 0.19691972 -0.03070044 0.08211681 0.004301349 -0.08449465 -0.13629167 0.073491335 -0.08151087 0.037823543 -0.026665017 -0.087510966 -0.25470683 -0.02505295 0.10756508 0.13292758 0.019426454 0.12861757 0.052863672 0.18716346 0.030338101 -0.066419475 0.05491904 0.067324765 0.00059052435 -0.015427569 -0.05514815 -0.04473312 0.1576162 0.01629557 0.15603843 -0.031752683 0.097128056 0.15365362 -0.14154218 -0.03704955 -0.030252593 0.029043932 -0.006478524 -0.036855463 -0.18031871 0.112777695 -0.030299231 0.15373228 -0.10603225 -0.01240034 0.019945432 0.012141141 -0.02210023 -0.102020666 -0.02217411 0.08661643 -0.13631432 -0.1546675 -0.12328742 0.11763829 0.03513063 0.0049990304 0.1866113 0.047710117 -0.117272355 -0.08319644 0.09264685 -0.1714005 0.019700164 -0.038039573 -0.062433757 0.089147516 -0.047366295 -0.054417457 -0.14574164 0.025620762
14 -0.07627606 -0.16774562 0.077790715 0.05345436 0.0068502505 0.11012744 -0.025040423 -0.11150204 -0.034210324 -0.036112066 0.0033443666 0.044607587 0.07402362 0.18230806 -0.10887085 0.057543326 -0.087509185 -0.088628106 -0.059533067 -0.10738557 0.14851776 -0.11452049 -0.046714205 0.04932245 -0.010445752 0.025042703 -0.0010767021 0.16772673 -0.17951968 -0.042489994 -0.044374257 -0.02717389 -0.034818377 0.16610646 -0.03336219 -0.08355034 -0.043977134 0.060509507 0.0964432 -0.06879904 0.03931944 0.14899306 -0.11675171 -0.018546753 -0.058219045 0.056783102 0.048451655 -0.00796174 0.13637932 0.13032827 0.062790185 0.047720183 0.018739855 -0.100930296 -0.03347615 -0.073575005 0.041426294 0.19005038 -0.04510389 0.08805073 -0.011210096 -0.08939583 -0.1372296 0.074451536 -0.08051494 0.038399342 -0.02404993 -0.07282094 -0.23964724 -0.026300054 0.11120368 0.12018655 0.029233947 0.12676756 0.042250436 0.1824857 0.028721979 -0.07092301 0.040492304 0.073354356 -0.0012103312 -0.014496009 -0.050604906 -0.0389929 0.15096164 0.018416602 0.1494023 -0.0351827 0.10549883 0.1432165 -0.15059742 -0.046866186 -0.031853803 0.0308413 0.0033891774 -0.032287616 -0.16952823 0.10544423 -0.023580695 0.14143008 -0.104250394 -0.0019899711 0.012577922 0.006555645 -0.03301513 -0.10081242 -0.033037666 0.07818397 -0.12993358 -0.15954456 -0.12912062 0.11198299 0.03144635 0.00010144573 0.18154486 0.050365694 -0.10827585 -0.07520985 0.094099134 -0.16124249 0.017187383 -0.04266259 -0.06179365 0.08636137 -0.053133994 -0.059098005 -0.14637887 0.036718346
15 -0.08026378 -0.168227 0.087582834 0.049966436 0.0086732935 0.11071015 -0.018776659 -0.11961886 -0.027537309 -0.03056911 0.010635492 0.042396303 0.07814319 0.17856881 -0.10954167 0.051989004 -0.08221495 -0.084023245 -0.06690351 -0.11069171 0.14553034 -0.10849687 -0.043689337 0.056302335 -0.015846966 0.032713544 -0.0062273275 0.16778281 -0.1683 -0.038471136 -0.04857241 -0.02689076 -0.031008739 0.16965349 -0.03522591 -0.089501716 -0.047227394 0.06435491 0.09671658 -0.062749885 0.047435757 0.14894134 -0.12005906 -0.023300871 -0.059311934 0.05622516 0.04515161 -0.013479417 0.1360824 0.14170235 0.07267396 0.050975103 0.017019536 -0.10178219 -0.0407555 -0.07231157 0.04521548 0.1906578 -0.04636481 0.08405243 -0.0070061143 -0.091107756 -0.13648 0.07500991 -0.08465377 0.03733701 -0.02328381 -0.0823599 -0.25188506 -0.028207531 0.11342682 0.125092 0.023389282 0.120201126 0.038982283 0.1826063 0.024847897 -0.07659865 0.04182183 0.07616785 -0.0051338375 -0.01457463 -0.05128636 -0.0335284 0.15307519 0.019187838 0.15478894 -0.03162051 0.10705232 0.14764045 -0.14922212 -0.04795174 -0.028481437 0.031474974 -0.0011606193 -0.033555735 -0.17836323 0.10773958 -0.020804817 0.14932248 -0.105147235 -0.008908752 0.010530968 0.008652518 -0.029002557 -0.10768058 -0.026455048 0.08050955 -0.13609469 -0.1566946 -0.13071081 0.11580369 0.0354833 0.00019579215 0.1785526 0.050900355 -0.11309598 -0.07318327 0.09853835 -0.16758259 0.021414245 -0.04032834 -0.060648736 0.084737204 -0.05631742 -0.051330727 -0.14669487 0.037402377
16 -0.087798715 -0.17064422 0.07400553 0.054627605 0.0067861513 0.11370154 -0.01379163 -0.11504407 -0.02930435 -0.035400197 0.004030574 0.04067462 0.07951645 0.18072051 -0.10988945 0.055378888 -0.07654848 -0.0923882 -0.05833878 -0.1109465 0.15237021 -0.106319346 -0.04780506 0.04253441 -0.011211367 0.028521653 0.00296942 0.1698494 -0.17404915 -0.047647383 -0.036219817 -0.031725653 -0.037752934 0.16576348 -0.036318287 -0.08074351 -0.03847454 0.05524288 0.09826911 -0.06273796 0.045185417 0.14704669 -0.110684074 -0.021860342 -0.05710991 0.056967553 0.049005706 -0.010950486 0.13569029 0.1243774 0.068487294 0.044642016 0.021211183 -0.09628242 -0.036318783 -0.07282931 0.04093507 0.18533184 -0.049452446 0.08479675 -0.015864426 -0.08626507 -0.13582584 0.0746613 -0.08261887 0.04012419 -0.017906195 -0.07444264 -0.23510464 -0.031621784 0.107906245 0.13094412 0.029116899 0.12911448 0.051775254 0.191829 0.028634768 -0.07153338 0.044709176 0.07043951 0.0014510963 -0.021219978 -0.06397567 -0.033094045 0.14671195 0.01721388 0.1489242 -0.034760315 0.099075474 0.1492099 -0.14639033 -0.04366867 -0.032206744 0.028792452 -0.0037547664 -0.037480835 -0.16737089 0.104345374 -0.029776314 0.14754294 -0.09958276 -0.0018992434 0.015507944 0.0066131926 -0.0385032 -0.10378531 -0.03959467 0.07734802 -0.12931104 -0.15693526 -0.12680548 0.105275206 0.022759212 0.00025847164 0.17967021 0.05346448 -0.10558252 -0.071331926 0.08971915 -0.1608204 0.013838604 -0.04264447 -0.059372928 0.081959054 -0.054060142 -0.057514023 -0.14529112 0.037371423
17 -0.085682146 -0.17415881 0.0826597 0.049886525 0.006867607 0.11538745 -0.025648382 -0.1210081 -0.02616503 -0.03405165 0.0022978361 0.037630774 0.07025597 0.17647906 -0.106156856 0.05875233 -0.09218321 -0.087681934 -0.07011791 -0.10012984 0.14251578 -0.12138222 -0.048795186 0.05544663 -0.017109532 0.023680922 -0.0014417715 0.1656339 -0.16956887 -0.038641118 -0.0492621 -0.023375627 -0.027179778 0.1628386 -0.03325661 -0.08671269 -0.044126194 0.06037406 0.089916326 -0.071149535 0.034118652 0.14330812 -0.12062431 -0.018561186 -0.06465327 0.058651008 0.038066622 -0.0039941194 0.13631997 0.15033342 0.061795596 0.048802212 0.01975329 -0.10740466 -0.028081298 -0.0732137 0.03514836 0.18316516 -0.033188112 0.07852342 0.0061622667 -0.09261276 -0.126667 0.06999268 -0.08092126 0.040764507 -0.027465656 -0.082943074 -0.25227156 -0.018648926 0.111781225 0.1284406 0.025318073 0.13017617 0.04850106 0.17064577 0.033047635 -0.068913125 0.047313266 0.07252654 -0.011137715 -0.007169707 -0.045990586 -0.0445655 0.15408702 0.009327729 0.1525181 -0.036318295 0.09966563 0.14235118 -0.14443097 -0.03825636 -0.027396725 0.033037238 0.004363294 -0.02689352 -0.17689782 0.10479602 -0.023836683 0.13997306 -0.11375783 -0.015947005 0.008513542 0.0124170715 -0.023671517 -0.10245827 -0.021160027 0.079916395 -0.13395879 -0.15593952 -0.116512604 0.11944102 0.03964964 0.0045531755 0.18751465 0.05786032 -0.11356008 -0.07931823 0.10742591 -0.17055415 0.019458897 -0.04171212 -0.06581329 0.085715115 -0.05482232 -0.050769143 -0.13988443 0.029625196
18 -0.08134752 -0.16145067 0.077352166 0.052763693 0.0068506044 0.10904775 -0.02056661 -0.11251358 -0.028215514 -0.035098344 0.010166087 0.03911094 0.078146204 0.17902966 -0.11234587 0.054187503 -0.0817522 -0.08619519 -0.0549949 -0.103446744 0.14016671 -0.11071462 -0.047325756 0.0523101 -0.008387763 0.032356292 0.0028850886 0.16444384 -0.18001343 -0.037516415 -0.047367066 -0.026867237 -0.026998436 0.1554433 -0.03411735 -0.08391009 -0.04500889 0.059363257 0.09349088 -0.06366101 0.040378973 0.14800295 -0.11766392 -0.0192114 -0.061223436 0.058823276 0.049254987 -0.009961545 0.12980561 0.13264357 0.06710032 0.04721034 0.021094423 -0.10054682 -0.03537769 -0.06975241 0.037832007 0.18936515 -0.038783737 0.08843734 -0.0058677313 -0.082645535 -0.14137244 0.06891575 -0.07464452 0.034631178 -0.022924501 -0.08068182 -0.24050348 -0.027505225 0.097028136 0.12075968 0.025280032 0.1292943 0.048235677 0.17555062 0.028417474 -0.06988228 0.048567627 0.06981307 0.0014825284 -0.010921262 -0.05027661 -0.04217324 0.15356728 0.011800721 0.1547126 -0.03734322 0.10623966 0.15324542 -0.14555606 -0.045627873 -0.025458895 0.032667 -0.0064509264 -0.032950345 -0.17241615 0.11168818 -0.030212693 0.14695086 -0.102921925 -0.00492772 0.01684755 0.014133117 -0.03203484 -0.10438195 -0.022908332 0.079465196 -0.13710724 -0.15804547 -0.12556076 0.11202982 0.036768682 0.005843302 0.17952867 0.048193753 -0.113943666 -0.083492406 0.0877698 -0.15952049 0.012545204 -0.039854497 -0.06407846 0.09210973 -0.0510071 -0.055012114 -0.14784661 0.031293795
19 -0.08088094 -0.1705421 0.08362736 0.057579078 0.004667201 0.10847586 -0.020993685 -0.115036935 -0.032028347 -0.029603863 0.008125864 0.036948252 0.076545686 0.18245466 -0.110333376 0.055292975 -0.079493746 -0.08783213 -0.06028298 -0.10665792 0.14608938 -0.10690534 -0.045023207 0.049815137 -0.011755688 0.037806816 0.003053596 0.16852339 -0.1751841 -0.04051349 -0.041214984 -0.023302218 -0.033702362 0.16162354 -0.03335619 -0.07879078 -0.04335942 0.057868987 0.09514189 -0.062276263 0.050035343 0.14916973 -0.11431752 -0.021263238 -0.0615841 0.055876814 0.047199573 -0.013072263 0.13311881 0.1359648 0.071191125 0.043029215 0.021528658 -0.09939619 -0.03703941 -0.07151355 0.040166188 0.19733156 -0.04331149 0.087132744 -0.014639306 -0.087072246 -0.13826874 0.075210854 -0.08514696 0.037189268 -0.021590058 -0.08265864 -0.25497672 -0.033288755 0.10645608 0.129136 0.02639232 0.12945849 0.04669191 0.19103378 0.021126747 -0.08183152 0.045991402 0.07461883 -0.0012265708 -0.018702103 -0.05693181 -0.04089366 0.14918953 0.021827903 0.15735053 -0.03537603 0.104224354 0.14932849 -0.15116325 -0.050520826 -0.034222424 0.027680308 -0.005880183 -0.038130198 -0.17493202 0.11315143 -0.027857777 0.15512173 -0.103337035 -0.0020993983 0.012744451 0.010958993 -0.034560908 -0.10906756 -0.029506568 0.08491564 -0.1339171 -0.16361052 -0.13929105 0.11838706 0.027963944 -0.0013585263 0.17734386 0.044235207 -0.11415271 -0.08047289 0.09069655 -0.1626166 0.019251794 -0.04528729 -0.06494757 0.0956365 -0.050348107 -0.052628107 -0.14711498 0.033246886
