20 128
10 -0.014955754 -0.034407314 0.12724154 -0.027789341 0.08421822 -0.05088847 -0.023600401 -0.05863149 -0.045476165 0.04295187 0.029344436 0.020005522 0.19352554 -0.074572966 0.17141753 0.16367576 0.03669801 -0.03323031 0.08137601 -0.039280277 0.10474858 -0.10262246 -0.14581382 -0.07614952 -0.027483398 0.0095086675 0.0645646 -0.010207107 0.071474105 0.04550399 0.028836971 0.019221721 -0.11047813 -0.10978959 -0.19038011 -0.09626266 0.036869165 0.011931691 -0.032920845 0.26335046 0.044233833 -0.15366445 -0.021008318 -0.14559706 0.019615568 0.021438606 -0.0056018657 -0.00072585937 -0.021277899 0.035536315 0.018780356 0.13672133 0.082949385 0.0957095 0.06324045 -0.116081454 -0.008133511 -0.09907721 0.1309199 0.1289673 -0.10780916 -0.21746196 -0.0058736703 0.04143508 -0.0768076 0.1442865 0.050186444 -0.057188038 0.055001598 0.0017954141 0.06831213 -0.087229535 -0.06876896 0.024504853 -0.007300038 -0.20329702 0.032128196 0.10488425 0.058005754 -0.02791231 -0.056152385 0.046509072 0.12886178 0.05976391 -0.025258176 0.037274517 0.04663322 0.00043971572 0.07276035 -0.045309324 -0.016718496 0.09831301 -0.034748256 -0.076978795 -0.040360313 -0.104171656 -0.06455388 -0.08616189 0.013504018 0.04436856 -0.068108544 -0.22322874 0.05435542 -0.12582338 0.11930655 0.21236393 -0.034932096 0.21576655 -0.03906495 -0.14258341 0.1399359 0.044568677 0.14353529 -0.059399705 0.023979537 -0.14719035 0.052656025 0.04324387 -0.14718395 -0.03239343 -0.0045439005 -0.006184933 0.08792997 0.051152803 -0.14303449 -0.046459023 -0.035916727 0.03165209
0 -0.019195195 -0.031010345 0.12485403 -0.02215225 0.084111504 -0.05897157 -0.021081721 -0.051659368 -0.04174746 0.047955547 0.028621802 0.020734103 0.18822888 -0.072370835 0.16578159 0.15932383 0.035759054 -0.03563053 0.080580086 -0.035542313 0.10770288 -0.10419511 -0.14675689 -0.07653999 -0.03138685 0.007901089 0.06079577 -0.0106035825 0.07687242 0.040603627 0.022336522 0.015932873 -0.102963805 -0.112212315 -0.18951273 -0.09403012 0.040810097 0.013039398 -0.032944344 0.26069638 0.039506402 -0.15685828 -0.025056453 -0.1447187 0.012420548 0.021224096 -0.00035158088 0.0038174028 -0.023386598 0.028960107 0.021276034 0.13014713 0.08748253 0.09723327 0.06376787 -0.11085226 -0.0073485924 -0.103182584 0.13152342 0.1339133 -0.112511024 -0.2125227 -0.0071628965 0.03723364 -0.07257991 0.14707741 0.0554451 -0.05424069 0.058092356 0.008919123 0.06708233 -0.09229625 -0.065208055 0.023700163 -0.0065930835 -0.20582063 0.035698775 0.10820245 0.062461436 -0.028443579 -0.054500483 0.047223885 0.13002394 0.062079173 -0.025795393 0.041432895 0.04899122 -0.00068492076 0.07239918 -0.046840984 -0.016447285 0.096289694 -0.040118225 -0.080919884 -0.03879074 -0.10159917 -0.065100856 -0.087096326 0.019341543 0.048400015 -0.06663994 -0.22761957 0.056808148 -0.13188028 0.12184255 0.21617651 -0.033390697 0.22397745 -0.03766366 -0.14244998 0.14286162 0.045214057 0.1396747 -0.059354004 0.022488564 -0.15191226 0.055610154 0.043225396 -0.15302604 -0.033291284 -0.0011402788 -0.0067099617 0.092969425 0.05346787 -0.14776519 -0.05337863 -0.035372958 0.034382902
1 -0.017764365 -0.03509107 0.12688316 -0.02267202 0.084845886 -0.057915553 -0.024952749 -0.05726503 -0.040621594 0.038402043 0.033271085 0.013154069 0.19333094 -0.077969566 0.16886422 0.16124307 0.033132143 -0.038804956 0.077947676 -0.03941696 0.10295773 -0.10209628 -0.15065373 -0.073089175 -0.029310443 0.012726229 0.0628669 6.754476e-05 0.078849144 0.045564245 0.031485222 0.013886804 -0.10471849 -0.11314499 -0.1866925 -0.09815669 0.042666785 0.00991216 -0.03191121 0.26510784 0.044487756 -0.14944036 -0.031637255 -0.13783142 0.017191153 0.021300958 -0.00022099653 0.0047779838 -0.019059649 0.027230551 0.01949134 0.13512418 0.08940012 0.09712986 0.05974641 -0.11409998 -0.010034961 -0.10362734 0.13939105 0.13692683 -0.1133946 -0.21890032 -0.009440384 0.036143634 -0.0761903 0.14535072 0.051037826 -0.05837076 0.05834572 0.004589542 0.06772483 -0.09432414 -0.06716676 0.03107309 -0.008652244 -0.20921955 0.036978446 0.1021472 0.06295258 -0.029643578 -0.057474848 0.040396914 0.13494983 0.0631921 -0.03106062 0.041894406 0.042881206 -0.0020002665 0.073852785 -0.0461604 -0.014373206 0.10106536 -0.036543038 -0.082463406 -0.03665191 -0.10273372 -0.06076909 -0.09081479 0.023069797 0.047791976 -0.06889472 -0.2328867 0.062096745 -0.13279942 0.12585928 0.21262778 -0.03861948 0.22536181 -0.03791204 -0.14220482 0.14354318 0.04516829 0.14219132 -0.06674658 0.016825669 -0.14537507 0.05823134 0.040697217 -0.15037203 -0.03758834 -0.0035778899 -0.003604794 0.08724515 0.054224435 -0.14816791 -0.053105466 -0.04047805 0.03784038
2 -0.018475328 -0.03111148 0.12541826 -0.028132169 0.08564922 -0.057939183 -0.019660953 -0.055905774 -0.05540906 0.04942197 0.02229949 0.02508726 0.1993449 -0.077352576 0.16842711 0.16966322 0.037095733 -0.034238286 0.07737531 -0.035828155 0.108676955 -0.106366634 -0.14669041 -0.08187643 -0.031698085 0.010129691 0.06604706 -0.014004713 0.07038175 0.039419003 0.021350238 0.023187626 -0.10918622 -0.11782087 -0.20177644 -0.09203911 0.040425792 0.017744912 -0.033985976 0.2629173 0.04269727 -0.15631849 -0.018356863 -0.1481931 0.018587105 0.024475222 -0.002535122 0.0036163472 -0.021641511 0.04162798 0.012236792 0.13220593 0.08162667 0.095092624 0.061879795 -0.11527545 -0.009819557 -0.102813594 0.12399044 0.13162106 -0.107017525 -0.21022439 -0.01027272 0.035936862 -0.072230265 0.13727286 0.054190952 -0.060446557 0.05305117 0.0045017567 0.06417831 -0.08439955 -0.06593033 0.02355052 -0.010689978 -0.2057507 0.029385312 0.10425306 0.06223266 -0.028532108 -0.051482506 0.04323957 0.12999392 0.06341163 -0.027551431 0.04149014 0.049705673 0.0028522534 0.07031094 -0.049743548 -0.013966191 0.09612461 -0.036918245 -0.071506776 -0.03923309 -0.10365146 -0.059480604 -0.08448656 0.013746491 0.039975252 -0.06625297 -0.22270489 0.04898277 -0.12969032 0.11618961 0.21325816 -0.025987571 0.21755782 -0.03964555 -0.14254366 0.1447898 0.043973126 0.14344728 -0.054158606 0.019281559 -0.15109059 0.05520425 0.044011094 -0.15603971 -0.036220465 -0.0064712204 -0.008331147 0.09090343 0.047461536 -0.14379095 -0.04712888 -0.04012509 0.026281836
3 -0.015409769 -0.03142506 0.12386785 -0.020848613 0.08620416 -0.05588115 -0.02396707 -0.058945525 -0.04727937 0.042404257 0.029057449 0.019283123 0.19528241 -0.07776641 0.16981179 0.16574998 0.032470815 -0.040200826 0.07774982 -0.0355576 0.10107207 -0.10201362 -0.1502076 -0.07485714 -0.026482785 0.014674269 0.061828576 -0.0035950104 0.07286488 0.047084726 0.031760465 0.016320746 -0.11117347 -0.10894583 -0.1905288 -0.097439036 0.042236365 0.01728133 -0.033611573 0.26301086 0.04545323 -0.15519017 -0.026407667 -0.14291319 0.01319762 0.02065227 0.0018486818 0.0047330526 -0.02351106 0.03157529 0.017154945 0.13775639 0.08611379 0.099264935 0.065020554 -0.119049616 -0.011083814 -0.10433103 0.13714764 0.13220412 -0.11387351 -0.21575867 -0.008440993 0.034297068 -0.07547164 0.14840926 0.047911603 -0.06065489 0.061284035 0.0054395422 0.0697057 -0.09257025 -0.06916596 0.028999867 -0.0042591374 -0.20452172 0.03400762 0.111171104 0.06307689 -0.03277725 -0.057710472 0.0396725 0.13204741 0.06071875 -0.02772009 0.04343107 0.044131804 -0.0032802587 0.07579965 -0.045487415 -0.015018298 0.100412674 -0.035995655 -0.07784419 -0.03613487 -0.105002955 -0.060841758 -0.086271 0.020408608 0.045377057 -0.066580564 -0.22384879 0.057741087 -0.13168529 0.11702799 0.21533692 -0.035964627 0.21800861 -0.040269587 -0.1399785 0.13792562 0.040457953 0.14493512 -0.06375544 0.017155515 -0.15054262 0.05804124 0.042295005 -0.15042955 -0.033868432 -0.005290347 -0.006278489 0.09205688 0.047967236 -0.14415783 -0.052874062 -0.041705906 0.032364514
4 -0.01305489 -0.03321812 0.12760052 -0.02616087 0.08747247 -0.059180886 -0.016653875 -0.0567326 -0.055945136 0.044970717 0.020381678 0.019447507 0.20408548 -0.08045178 0.17224011 0.17269057 0.03709687 -0.03329673 0.08236307 -0.035768855 0.109544456 -0.10986983 -0.14929846 -0.0783052 -0.031224491 0.009017875 0.061945558 -0.010088131 0.07657832 0.042095434 0.021662503 0.025447259 -0.1111691 -0.119587876 -0.20143175 -0.097497806 0.044433042 0.018240899 -0.03479478 0.2727541 0.03930662 -0.16092151 -0.02883135 -0.14559151 0.018100206 0.022673687 -0.0015319089 0.004086472 -0.021816246 0.04207285 0.018116284 0.13600114 0.08615318 0.10149445 0.05988263 -0.11504954 -0.0062791146 -0.102217294 0.1298538 0.1277993 -0.11562372 -0.2184353 -0.006703351 0.033011217 -0.07490197 0.14453799 0.056998886 -0.05764978 0.06057767 0.007814811 0.068157375 -0.08721983 -0.06803841 0.025083294 -0.00934391 -0.19964835 0.038722157 0.10763765 0.06222754 -0.03269563 -0.0519527 0.04404992 0.12639742 0.066061296 -0.02593622 0.04484366 0.048532818 -0.001019105 0.07439894 -0.05187854 -0.013209194 0.10121516 -0.040243104 -0.07029533 -0.042209405 -0.10794217 -0.061665487 -0.078868195 0.017223882 0.043215126 -0.066369 -0.22014226 0.050863683 -0.12876292 0.12040366 0.20992784 -0.035920594 0.22178021 -0.039746903 -0.14471415 0.14415987 0.04264376 0.1396652 -0.055435255 0.01634611 -0.1473201 0.047062587 0.0460991 -0.15226342 -0.0314145 -0.001810934 -0.002979342 0.09377623 0.043977175 -0.13970378 -0.04851982 -0.03884074 0.027351486
5 -0.017582754 -0.027760673 0.11957433 -0.023380069 0.08088061 -0.054469597 -0.021672579 -0.056232393 -0.048819892 0.04204545 0.028500626 0.020704435 0.19424516 -0.07276848 0.17321071 0.16383404 0.03773408 -0.03384773 0.07306432 -0.033566337 0.09913662 -0.10851344 -0.15128656 -0.07316024 -0.026212469 0.011418548 0.066748045 -0.011013322 0.06790693 0.04596373 0.023336193 0.019838957 -0.10985535 -0.11460949 -0.19340685 -0.0916012 0.034917567 0.012590163 -0.031880647 0.2630012 0.045784082 -0.15425326 -0.022641899 -0.14891057 0.019731395 0.02041798 -0.0031903803 -0.00093905313 -0.021082554 0.04091096 0.019963603 0.13752247 0.07934842 0.100718446 0.06558275 -0.10950323 -0.013027846 -0.104418255 0.12936167 0.13259228 -0.11187182 -0.20846224 -0.009804779 0.03783493 -0.073725596 0.14146484 0.05415981 -0.060429323 0.055185206 0.0049929917 0.06869912 -0.08172408 -0.06385914 0.03042176 -0.0054281447 -0.20734562 0.032755833 0.10413032 0.058475982 -0.02648759 -0.060318276 0.047236413 0.13024557 0.06535083 -0.029462213 0.039361943 0.038413852 -0.00032351573 0.068492964 -0.048434388 -0.01592617 0.09447118 -0.0319853 -0.073275566 -0.039802983 -0.10741013 -0.062097054 -0.08948797 0.018413119 0.039354213 -0.06610687 -0.22414899 0.051048417 -0.13205826 0.11867805 0.20715521 -0.031582706 0.21973702 -0.037633564 -0.14058101 0.13940553 0.039102636 0.14433181 -0.06272666 0.019677173 -0.14691785 0.056863114 0.04300266 -0.15204918 -0.030767083 -0.008491515 -0.006349611 0.08814454 0.042086516 -0.13965696 -0.046149023 -0.037832428 0.026697634
6 -0.020144837 -0.033604868 0.12289159 -0.021879755 0.08062802 -0.052574802 -0.024296518 -0.05685928 -0.047384847 0.045544833 0.0313395 0.019739894 0.19507557 -0.07081172 0.1753523 0.16579002 0.031791598 -0.036631063 0.07821548 -0.033289745 0.10096198 -0.10552193 -0.1493266 -0.072465576 -0.02997505 0.009648228 0.067275815 -0.0073159607 0.071152024 0.04539431 0.030175962 0.02326659 -0.11191351 -0.112785764 -0.19145547 -0.10151094 0.043237302 0.017222716 -0.031872097 0.267622 0.04387779 -0.15733705 -0.025381455 -0.1471555 0.015903648 0.020015439 -0.002513862 -0.00031725504 -0.02290178 0.036271986 0.019373998 0.13454108 0.080765896 0.10121299 0.06375954 -0.113708906 -0.003378111 -0.105569564 0.13596039 0.13295639 -0.111001894 -0.21289529 -0.011258774 0.034891557 -0.071997575 0.14465378 0.04783593 -0.060243383 0.06082204 0.0074858996 0.068237394 -0.08948479 -0.0675733 0.033066668 -0.008794147 -0.20775017 0.034172673 0.104927324 0.059803423 -0.028759347 -0.055634804 0.046337515 0.1259387 0.06568954 -0.028724195 0.038726047 0.040634997 -0.0025704382 0.07617352 -0.04312938 -0.019552952 0.094758175 -0.037226904 -0.073758386 -0.03791251 -0.10750139 -0.056053504 -0.087753244 0.01777933 0.049367357 -0.06954207 -0.22625384 0.056274213 -0.12875123 0.12234865 0.21089165 -0.037040006 0.22514376 -0.034468245 -0.1447714 0.13930488 0.041260377 0.13879597 -0.06548818 0.015842615 -0.14369753 0.05675254 0.046019215 -0.14557719 -0.033236235 -0.003445037 -0.0028376204 0.09493892 0.04462436 -0.13857722 -0.053323828 -0.03783659 0.0321338
7 -0.017617268 -0.02676713 0.12590316 -0.026917955 0.080515824 -0.05082932 -0.016612668 -0.059988327 -0.048027143 0.040643822 0.02992212 0.014314962 0.19176424 -0.07513097 0.17620713 0.1656403 0.034199346 -0.036541745 0.07984458 -0.035041984 0.103996135 -0.10318201 -0.15018839 -0.07865198 -0.028386515 0.005376801 0.06603497 -0.0023866014 0.07617785 0.049629927 0.030228093 0.013319571 -0.106201775 -0.11616768 -0.1904318 -0.095123895 0.0451549 0.008430746 -0.03262775 0.2639998 0.041875273 -0.1549063 -0.027417751 -0.13780062 0.016765863 0.027854804 -0.008492901 -0.0023435948 -0.018342715 0.035029512 0.021123348 0.13297485 0.08188679 0.10178247 0.060114305 -0.11762627 -0.0044580633 -0.105768874 0.13308582 0.1327974 -0.11334724 -0.21694462 -0.008045771 0.03770882 -0.08136914 0.1462425 0.04600045 -0.060182344 0.0592741 0.009605077 0.06435724 -0.09085678 -0.0677104 0.03315783 -0.0114131 -0.21070912 0.036936782 0.10597415 0.058346525 -0.026302446 -0.06170936 0.041449733 0.13272299 0.061497856 -0.034340486 0.039978474 0.04154238 -0.0066689095 0.076922 -0.04728639 -0.013729568 0.094831556 -0.035857953 -0.074889466 -0.03748882 -0.10361764 -0.06439491 -0.08697101 0.019490855 0.047664754 -0.061383475 -0.22941534 0.05971929 -0.1330794 0.1226674 0.21318766 -0.038158935 0.22650166 -0.036147065 -0.14107051 0.14490555 0.049125284 0.14846286 -0.065067 0.02191689 -0.14371899 0.05262026 0.042320605 -0.14553173 -0.033190552 -0.0021201107 -0.0071474877 0.084907174 0.046219923 -0.14639613 -0.047107264 -0.040220372 0.03268679
8 -0.014447952 -0.032367 0.12330055 -0.024124669 0.085543245 -0.051605765 -0.021863721 -0.054909267 -0.045464065 0.0439323 0.026500462 0.02134324 0.19263972 -0.071644485 0.17309542 0.16173854 0.03177745 -0.039341368 0.08237359 -0.038078617 0.10446577 -0.10033144 -0.14919248 -0.07819563 -0.029797696 0.014070911 0.057838064 -0.0010491116 0.0758677 0.040566925 0.023469923 0.018472249 -0.10814062 -0.11338444 -0.19342086 -0.0916598 0.041961946 0.010188284 -0.033665083 0.26114783 0.040785857 -0.15796253 -0.02048108 -0.13936591 0.0144371595 0.019591998 -0.0076641305 -0.0022071265 -0.026225472 0.03810164 0.019095972 0.13329782 0.080428325 0.09704421 0.06534309 -0.117139824 -0.013309204 -0.10528296 0.13307615 0.13482264 -0.11015835 -0.21908274 -0.011194746 0.041490722 -0.080638506 0.14279096 0.048895307 -0.059559256 0.050941225 0.0007192009 0.06469047 -0.09249851 -0.06407627 0.028871465 -0.012181161 -0.20163085 0.029121002 0.10489523 0.058115616 -0.025039144 -0.060007397 0.042401206 0.12512477 0.06397086 -0.024315363 0.039186947 0.049743794 -0.0009909241 0.07532586 -0.050037775 -0.015420933 0.100204416 -0.038662214 -0.074330576 -0.039437126 -0.101610884 -0.061816026 -0.08577626 0.017785065 0.04304597 -0.06457802 -0.22605507 0.055337995 -0.12731089 0.11996573 0.21205072 -0.029376924 0.21340314 -0.040281687 -0.14266337 0.1356406 0.043709416 0.14434773 -0.0572104 0.025589691 -0.14625414 0.059118498 0.0441732 -0.14657316 -0.035395224 -0.0018040321 -0.007358592 0.08873921 0.051548693 -0.14431815 -0.045809414 -0.03412081 0.028099542
9 -0.019642351 -0.031602252 0.12634498 -0.02373865 0.0912446 -0.060703408 -0.014551354 -0.057878226 -0.053494737 0.04180233 0.020872246 0.018578287 0.19807698 -0.07906042 0.17019619 0.16785742 0.033231407 -0.034020934 0.08080982 -0.03362307 0.10723416 -0.105431356 -0.14422062 -0.08620689 -0.03225761 0.00830328 0.06268964 -0.012720688 0.076218665 0.042112824 0.01983155 0.01906138 -0.10365351 -0.11415484 -0.20042785 -0.08873506 0.042770825 0.011047184 -0.038196683 0.26032805 0.037104357 -0.15466727 -0.022914514 -0.14167398 0.022012277 0.02715884 -0.009379288 -0.00233757 -0.017507594 0.04013954 0.013462193 0.13405535 0.08526269 0.09519689 0.062230315 -0.11843692 -0.009682393 -0.098982744 0.12310533 0.13421011 -0.10598343 -0.211581 -0.008791298 0.037681628 -0.07892612 0.13888617 0.04939913 -0.055627264 0.05205642 0.0052352864 0.05996151 -0.08740863 -0.06462823 0.02195828 -0.01475282 -0.20413004 0.032807916 0.10566241 0.05741057 -0.026256725 -0.053891208 0.04409409 0.13378027 0.058192573 -0.031252798 0.0426871 0.0488126 1.8733266e-05 0.07259673 -0.048939716 -0.00890371 0.09935263 -0.039019052 -0.07794836 -0.043531705 -0.097770356 -0.06772779 -0.0795097 0.010818358 0.038210336 -0.062151212 -0.22638631 0.0561223 -0.12863958 0.12015245 0.20902933 -0.027990058 0.21954277 -0.03515372 -0.13958588 0.14779167 0.04790936 0.14455108 -0.051887833 0.02413626 -0.14838529 0.049354285 0.04115516 -0.15012735 -0.030814026 -0.0051086536 -0.011384528 0.086641915 0.047220204 -0.14313538 -0.042164784 -0.04034582 0.03397218
11 -0.018497203 -0.025407303 0.12100321 -0.02644526 0.08554639 -0.05769406 -0.02001206 -0.051119667 -0.04493779 0.051305145 0.02332797 0.01846051 0.18945299 -0.071951054 0.16881654 0.16188526 0.034212377 -0.03552366 0.08372762 -0.033590894 0.10907654 -0.10726072 -0.14481533 -0.07552075 -0.031390335 0.0025992275 0.06143081 -0.012516539 0.075845405 0.04555148 0.01775032 0.011891584 -0.099484175 -0.11057788 -0.19152544 -0.08832859 0.040052783 0.013746468 -0.032345194 0.25735176 0.034621548 -0.15872943 -0.020442411 -0.13718499 0.014136525 0.021725317 -0.005831972 0.0027582461 -0.019201845 0.033041798 0.01641217 0.12531194 0.087345295 0.09966352 0.06112599 -0.11338515 -0.010642767 -0.10567727 0.12567468 0.13302171 -0.108878255 -0.21187787 -0.003800027 0.036356505 -0.0765139 0.13974665 0.05514956 -0.056278806 0.06127638 0.0075099315 0.05994811 -0.09302684 -0.06754177 0.022152716 -0.010878251 -0.21018147 0.032068048 0.10279098 0.06296957 -0.029968081 -0.057351902 0.04794691 0.12941484 0.063030034 -0.03132071 0.04160039 0.048787367 -0.0023544563 0.071738176 -0.049239222 -0.011672418 0.09368417 -0.039661497 -0.08099686 -0.040720645 -0.0991135 -0.06500238 -0.08688018 0.018926445 0.04583785 -0.06252097 -0.23079161 0.054307893 -0.13238372 0.12566046 0.22139335 -0.033699293 0.22235925 -0.04097929 -0.14503172 0.14799884 0.051349644 0.14640084 -0.05843587 0.023471424 -0.15211733 0.05437946 0.04464106 -0.15144159 -0.03245382 -0.0017525002 -0.009812706 0.092362575 0.0500066 -0.15152459 -0.05042891 -0.0385476 0.031545952
12 -0.016740985 -0.03489486 0.1268409 -0.02520233 0.08476132 -0.056266595 -0.023063842 -0.05933039 -0.05210827 0.041770402 0.026107239 0.019888595 0.19822703 -0.07089977 0.17644013 0.16527991 0.032112453 -0.03912342 0.075186804 -0.03616613 0.10019977 -0.10884358 -0.15103252 -0.07957678 -0.029205883 0.015716175 0.06571958 -0.00785246 0.07189076 0.041160125 0.026658805 0.025068246 -0.11505113 -0.11420779 -0.19651593 -0.09344047 0.04024287 0.011727601 -0.034813955 0.26732486 0.049444467 -0.15795667 -0.02263434 -0.15140834 0.019853259 0.019177683 -0.00615546 0.00015726106 -0.027318405 0.041712396 0.017072747 0.13719565 0.07876161 0.097075395 0.067934774 -0.11580626 -0.010705309 -0.10072119 0.13297579 0.13621017 -0.11257236 -0.21732678 -0.0111699095 0.040291253 -0.0764439 0.14521535 0.04925504 -0.064658545 0.050926507 0.0024003868 0.07087505 -0.084540874 -0.06352581 0.025807824 -0.010795818 -0.20424311 0.028940223 0.104679056 0.05966164 -0.026996082 -0.055756003 0.041755076 0.13085544 0.06347499 -0.024312759 0.039339036 0.04734689 -0.002922844 0.07308123 -0.049852524 -0.015374376 0.09681527 -0.032026257 -0.07648474 -0.03878408 -0.10450292 -0.06378283 -0.084331915 0.014076744 0.042623244 -0.06759066 -0.22046743 0.051434394 -0.13186432 0.11779856 0.21043201 -0.028247308 0.21913244 -0.035077102 -0.14142767 0.1406462 0.03899932 0.14578532 -0.05783552 0.02133897 -0.1476248 0.059575222 0.04569028 -0.1504601 -0.03450993 -0.0078676455 -0.0077060247 0.08860311 0.044445835 -0.14158306 -0.045274936 -0.037166644 0.02836157
13 -0.0153960865 -0.03198265 0.12731646 -0.025806764 0.08532591 -0.05551848 -0.018237563 -0.057069197 -0.056564577 0.044194616 0.01854613 0.018920982 0.20166755 -0.07886815 0.17163952 0.16850728 0.03447662 -0.034773547 0.080360666 -0.032526087 0.11070675 -0.11008169 -0.1499395 -0.079428524 -0.029518867 0.010559751 0.06345167 -0.014817066 0.07020185 0.041520197 0.022679264 0.022472294 -0.11295067 -0.11640597 -0.20615193 -0.09111766 0.03882564 0.013934271 -0.03776521 0.26604685 0.041694254 -0.16153517 -0.023104532 -0.14716956 0.017983407 0.021907642 -0.0049233073 0.002043811 -0.023083163 0.043969553 0.017186318 0.1366751 0.08532815 0.09949631 0.06296012 -0.11930598 -0.009331336 -0.09984634 0.12855259 0.13175355 -0.11030681 -0.21611497 -0.011564517 0.041444544 -0.076997906 0.14425641 0.052717764 -0.059741396 0.05508638 0.0038110104 0.066583805 -0.08159087 -0.06536699 0.0230205 -0.012839076 -0.20561375 0.031324323 0.10754884 0.059164055 -0.025292598 -0.052773643 0.043513723 0.13250518 0.06494466 -0.02712863 0.04167811 0.04984425 -0.0028558762 0.07350304 -0.054066785 -0.013646914 0.09738339 -0.039761476 -0.07215084 -0.039405767 -0.10688036 -0.06756384 -0.082065366 0.009393552 0.038726125 -0.06340627 -0.22169745 0.05171742 -0.12826413 0.117732376 0.21248409 -0.0298169 0.21710037 -0.03840754 -0.14365 0.14905968 0.043380048 0.14622582 -0.05083714 0.022793485 -0.15192826 0.05254115 0.04689747 -0.15174957 -0.035156097 -0.0048698806 -0.009680472 0.08964643 0.04696173 -0.1416592 -0.04494145 -0.042072646 0.030504482
14 -0.022031255 -0.035304274 0.122395314 -0.020998389 0.08879056 -0.060495697 -0.016323835 -0.056341503 -0.051869612 0.039699454 0.024323089 0.021177946 0.1921937 -0.07730505 0.17048034 0.16819337 0.034521613 -0.034639735 0.07662098 -0.034530465 0.10108121 -0.10864153 -0.14699353 -0.07715791 -0.024078472 0.005786909 0.06951142 -0.009893023 0.07467209 0.04301854 0.026311638 0.022957327 -0.1088062 -0.11827295 -0.19280449 -0.091964886 0.04010864 0.014313833 -0.03146023 0.26870584 0.03843071 -0.1515984 -0.028298562 -0.14846607 0.020952547 0.026844956 -0.002053335 0.0038601884 -0.018053617 0.036523495 0.0154071655 0.13557114 0.08427938 0.103411466 0.060186956 -0.11759496 -0.000769933 -0.09858538 0.1354058 0.12950069 -0.10808066 -0.21563663 -0.008303891 0.036312718 -0.069382966 0.13895729 0.054105975 -0.05886972 0.06255477 0.0045185313 0.067349285 -0.08875902 -0.06852702 0.026026867 -0.010842165 -0.20873086 0.03943265 0.10822646 0.061067693 -0.03214209 -0.053268883 0.050100632 0.12751992 0.06519484 -0.035416678 0.040382214 0.040822264 -0.0042767194 0.073126815 -0.04547179 -0.011482807 0.098992124 -0.037352815 -0.0724831 -0.040129196 -0.107209496 -0.058923207 -0.085149325 0.017322086 0.038869474 -0.065478764 -0.2252718 0.05802309 -0.1254054 0.12168049 0.20561604 -0.039841697 0.2243263 -0.040133055 -0.14176047 0.14776705 0.04513808 0.13987105 -0.057611946 0.015069816 -0.15005447 0.048477497 0.043192424 -0.14915343 -0.036056492 -0.009119402 -0.005248986 0.08861699 0.048805457 -0.1353173 -0.047427513 -0.043156557 0.034413256
15 -0.013507208 -0.027566263 0.12035206 -0.028181981 0.075647436 -0.054980997 -0.028132264 -0.055284575 -0.039498944 0.052392524 0.027145363 0.014837106 0.1919613 -0.07140216 0.17437713 0.15809886 0.033067994 -0.039026685 0.08066763 -0.035515696 0.10578123 -0.1044003 -0.15376265 -0.0647582 -0.023675084 0.007442744 0.066133104 -0.004665927 0.07154728 0.048822604 0.02499031 0.015328737 -0.11115848 -0.10949824 -0.1903256 -0.0941736 0.038917426 0.008669573 -0.029312309 0.25989017 0.040807977 -0.1594128 -0.020026952 -0.1398708 0.013592938 0.016688695 0.00032483434 0.0035615016 -0.027871583 0.040404856 0.018597884 0.1342384 0.083146796 0.09953244 0.06797079 -0.11133089 -0.01356172 -0.10481533 0.13471241 0.13206294 -0.11660307 -0.22063321 -0.007515233 0.03983983 -0.08359789 0.14298524 0.052625734 -0.059755787 0.058492646 0.0043234196 0.0719808 -0.08873295 -0.07399918 0.03355631 -0.005900687 -0.20789433 0.034315567 0.09897968 0.061237704 -0.024221092 -0.0610574 0.042078447 0.123284936 0.070100956 -0.02401477 0.044629876 0.044948507 -0.00046531504 0.073334895 -0.052143075 -0.017227689 0.0955836 -0.035194945 -0.073877506 -0.039446186 -0.10598361 -0.05963372 -0.09476152 0.020894181 0.045637902 -0.070388965 -0.23077275 0.058116686 -0.13461137 0.12387482 0.22363673 -0.03990964 0.22131382 -0.044355202 -0.13962118 0.1412365 0.052038755 0.14882486 -0.058597066 0.026261931 -0.14869562 0.058787428 0.045406267 -0.15251175 -0.04217221 -0.0071825306 -0.0039914125 0.093481064 0.051989943 -0.15118252 -0.058428697 -0.03594246 0.022619125
16 -0.024288645 -0.025607629 0.118881665 -0.02638729 0.090670496 -0.062173277 -0.02616783 -0.054225918 -0.05331025 0.052635413 0.02754511 0.022560125 0.19629 -0.06977977 0.17023338 0.16673844 0.03725158 -0.031086264 0.074920826 -0.03505272 0.10508035 -0.11197459 -0.14882733 -0.07582328 -0.035713233 0.01189311 0.063862965 -0.018301021 0.07278697 0.0436867 0.014948699 0.019715915 -0.11105435 -0.11854087 -0.19502404 -0.09125673 0.035392992 0.021448525 -0.03602251 0.26861247 0.0396396 -0.15350784 -0.026333096 -0.15598913 0.0124989515 0.023732554 0.0023949072 0.00071839255 -0.025074983 0.034730215 0.016591337 0.13148357 0.07914871 0.10445284 0.06259309 -0.11406131 -0.010438843 -0.10336502 0.12845361 0.12864201 -0.11201398 -0.2071565 -0.009421846 0.029246235 -0.06536022 0.13864514 0.056858554 -0.054575253 0.06527761 0.01246079 0.06827671 -0.08382195 -0.06538423 0.019196484 -0.006007736 -0.2051274 0.026478069 0.10824618 0.06656137 -0.033651203 -0.055142876 0.052208785 0.1291135 0.067780755 -0.03168286 0.040962007 0.04244447 -0.00056675257 0.0689815 -0.043794237 -0.012401687 0.0945876 -0.0360478 -0.07382572 -0.036663283 -0.10156808 -0.057743963 -0.083893664 0.021257423 0.039792545 -0.061677556 -0.2218267 0.047334548 -0.13103919 0.120445564 0.21396971 -0.03407777 0.22008812 -0.037618756 -0.14035332 0.13534556 0.03921159 0.13691442 -0.058137823 0.014900441 -0.15122029 0.05711032 0.04806596 -0.15257934 -0.031227687 -0.00650053 -0.0009582771 0.09919187 0.041692056 -0.1355433 -0.048586782 -0.032603167 0.026043793
17 -0.021485012 -0.033284526 0.12620792 -0.024290025 0.09163677 -0.061111093 -0.021945925 -0.055855487 -0.050828118 0.0456917 0.026251422 0.023636412 0.19792387 -0.07389821 0.16626136 0.168676 0.035951994 -0.03470403 0.076264754 -0.034360804 0.10702053 -0.10869625 -0.14609982 -0.08159178 -0.030172806 0.008858021 0.06678025 -0.0166242 0.073525675 0.037021574 0.021163303 0.02161073 -0.10564014 -0.11597443 -0.19843766 -0.09344885 0.04167978 0.01593841 -0.03619266 0.2669292 0.04160502 -0.15708035 -0.021289699 -0.15049413 0.018235104 0.023063831 0.00044745835 0.0033546987 -0.023943013 0.039436616 0.016395168 0.13441625 0.084115446 0.10081665 0.061109904 -0.11617371 -0.0063434946 -0.10020783 0.13141559 0.1317189 -0.108633935 -0.21347657 -0.010465965 0.033240814 -0.069845766 0.13904803 0.054165546 -0.059321873 0.058721155 0.004915596 0.065232776 -0.08562108 -0.06832646 0.023651805 -0.011290679 -0.20605606 0.032959737 0.105842 0.06376197 -0.03141478 -0.053865064 0.048484106 0.12964073 0.061535597 -0.02843286 0.04310852 0.046713002 -0.0014470397 0.07460883 -0.045503043 -0.014161735 0.09794008 -0.037811212 -0.07490266 -0.038708135 -0.103443444 -0.060005628 -0.08481967 0.01775327 0.040418696 -0.06458312 -0.22692299 0.05361133 -0.12894271 0.118692845 0.21366392 -0.030183515 0.22016731 -0.039635297 -0.14630146 0.14546889 0.0433776 0.13813283 -0.057774328 0.01957511 -0.1525039 0.055065107 0.046432503 -0.15433793 -0.032535695 -0.004370296 -0.006522157 0.09729745 0.04803692 -0.13913216 -0.046220858 -0.038776923 0.030998206
18 -0.017687473 -0.027899545 0.12093656 -0.019368183 0.08699463 -0.05472299 -0.020232791 -0.049796402 -0.051271357 0.044992972 0.024522481 0.021295395 0.19611262 -0.07066276 0.1677022 0.17091748 0.037718177 -0.037223835 0.08024601 -0.03818234 0.10770533 -0.10531326 -0.14710209 -0.08314807 -0.029997516 0.012670963 0.06264088 -0.013381323 0.076556034 0.04073636 0.018434461 0.02453927 -0.10933951 -0.113288276 -0.19848017 -0.094747834 0.04350255 0.017467977 -0.032088246 0.26717764 0.041144937 -0.15692537 -0.029254166 -0.14830764 0.014415579 0.025025917 0.00042559553 0.0029866486 -0.022260679 0.031126166 0.016927736 0.13251354 0.08089858 0.10129725 0.060683675 -0.117095865 -0.007303042 -0.103835836 0.13070081 0.12980346 -0.1096502 -0.20783347 -0.011231844 0.03016687 -0.068722114 0.14478604 0.058045525 -0.05518794 0.06338244 0.0128811095 0.061444458 -0.09385566 -0.0663203 0.022633761 -0.0070000985 -0.20382275 0.037253086 0.11077122 0.06510955 -0.03238543 -0.056672323 0.04814344 0.1281763 0.060791932 -0.034790564 0.041666422 0.04882787 -0.0003617431 0.07778104 -0.051014993 -0.0101006385 0.09903913 -0.039468966 -0.072777055 -0.036482614 -0.106655344 -0.064473964 -0.0797009 0.021294277 0.042130165 -0.060704805 -0.22455157 0.052719966 -0.12763654 0.1216546 0.21340448 -0.03636521 0.2262197 -0.034339588 -0.14609218 0.1421791 0.040893313 0.13667226 -0.05930896 0.017804926 -0.14996266 0.051910102 0.044094875 -0.14648485 -0.028200325 -0.0013797279 -0.008589079 0.0960629 0.04912638 -0.1442175 -0.045293983 -0.036669455 0.034506243
19 -0.019489376 -0.02677772 0.12528129 -0.025484663 0.08687532 -0.059632134 -0.022742003 -0.05199596 -0.048717324 0.050761204 0.02004913 0.022019247 0.19776516 -0.069018915 0.17142242 0.16389462 0.035212092 -0.032576796 0.08138181 -0.034696184 0.11147564 -0.106661275 -0.14358547 -0.07810196 -0.032356422 0.012465461 0.061418522 -0.012300277 0.070690155 0.039129995 0.01689556 0.019597761 -0.105884895 -0.11308409 -0.19324599 -0.093941316 0.03918173 0.017521719 -0.034896307 0.25830898 0.04079416 -0.15782544 -0.017235465 -0.14610535 0.014911537 0.018119577 -0.004303252 0.0025736806 -0.025033131 0.03894185 0.014111096 0.12893368 0.08087413 0.09866139 0.06315961 -0.11105456 -0.010017002 -0.103740245 0.12670848 0.13068648 -0.11065688 -0.21180855 -0.0076079094 0.033612106 -0.073957674 0.1380984 0.054246053 -0.057830874 0.05470883 0.009270499 0.06393232 -0.0883137 -0.06573789 0.021887245 -0.008787196 -0.20030528 0.025853913 0.10570186 0.06478733 -0.025611041 -0.051116433 0.044555414 0.12955877 0.06417164 -0.022943323 0.044321902 0.047320116 0.004177823 0.07161103 -0.048688162 -0.015353529 0.09719659 -0.04090873 -0.075182706 -0.034997232 -0.09934275 -0.062339857 -0.08259827 0.014754758 0.04562461 -0.06651871 -0.2221427 0.048137896 -0.12520659 0.121263124 0.21672359 -0.027864883 0.21542294 -0.038617417 -0.1424052 0.1399944 0.040795237 0.13921529 -0.051647253 0.020012105 -0.1492342 0.05731412 0.045917615 -0.15389581 -0.031846426 -0.0027253393 -0.0025394568 0.09637135 0.047318827 -0.14565842 -0.04588685 -0.032529335 0.025763435
